Language model created by QuickLM on Thu Aug  1 20:43:03 EDT 2013
Copyright (c) 1996-2010 Carnegie Mellon University and Alexander I. Rudnicky

The model is in standard ARPA format, designed by Doug Paul while he was at MITRE.

The code that was used to produce this language model is available in Open Source.
Please visit http://www.speech.cs.cmu.edu/tools/ for more information

The (fixed) discount mass is 0.5. The backoffs are computed using the ratio method.
This model based on a corpus of 233 sentences and 226 words

\data\
ngram 1=226
ngram 2=448
ngram 3=224

\1-grams:
-0.7782 </s> -0.3010
-0.7782 <s> -0.2218
-3.1455 A -0.2218
-3.1455 ACTIVATE -0.2218
-3.1455 AGAIN -0.2218
-3.1455 ALIAS -0.2218
-3.1455 ALPHA -0.2218
-3.1455 AND-PER-SAND -0.2218
-3.1455 APPEND -0.2218
-3.1455 APT-GET -0.2218
-3.1455 AUTO -0.2218
-3.1455 AWK -0.2218
-3.1455 BACK-SLASH -0.2218
-3.1455 BACKGROUND -0.2218
-3.1455 BACKSPACE -0.2218
-3.1455 BACKTICK -0.2218
-3.1455 BACKTICKS -0.2218
-3.1455 BANG -0.2218
-3.1455 BASE -0.2218
-3.1455 BASH-R-C -0.2218
-3.1455 BEGINNING -0.2218
-3.1455 BEGINNING-OF-LINE -0.2218
-3.1455 BOTTOM -0.2218
-3.1455 BRACES -0.2218
-3.1455 BRACKETS -0.2218
-3.1455 BRAVO -0.2218
-3.1455 BUNDLE-INSTALL -0.2218
-3.1455 C-D -0.2218
-3.1455 C-H-MOD -0.2218
-3.1455 C-H-OWN -0.2218
-3.1455 CAPS-LOCK -0.2218
-3.1455 CARET -0.2218
-3.1455 CASH -0.2218
-3.1455 CAT -0.2218
-3.1455 CHANGE -0.2218
-3.1455 CHARLIE -0.2218
-3.1455 CLEAN -0.2218
-3.1455 CLEAR -0.2218
-3.1455 CLOSE -0.2218
-3.1455 COLON -0.2218
-3.1455 COM -0.2218
-3.1455 COMMA -0.2218
-3.1455 COPY -0.2218
-3.1455 CURL -0.2218
-3.1455 CUT -0.2218
-3.1455 CYCLE -0.2218
-3.1455 CYCLE-WINDOW -0.2218
-3.1455 D-F -0.2218
-3.1455 DATE -0.2218
-3.1455 DATE-STAMP -0.2218
-3.1455 DAY -0.2218
-3.1455 DE-ACTIVATE -0.2218
-3.1455 DE-SELECT -0.2218
-2.8445 DELETE -0.2218
-3.1455 DELETE-LINE -0.2218
-3.1455 DELTA -0.2218
-3.1455 DIVIDE -0.2218
-3.1455 DOT -0.2218
-3.1455 DOUBLE-QUOTE -0.2218
-3.1455 DOUBLE-QUOTES -0.2218
-2.8445 DOWN -0.2218
-3.1455 ECHO -0.2218
-3.1455 EDIT -0.2218
-3.1455 EDITOR -0.2218
-3.1455 EIGHT -0.2218
-3.1455 END -0.2218
-2.8445 END-OF-LINE -0.2218
-3.1455 ESCAPE -0.2218
-3.1455 ET -0.2218
-3.1455 EXECUTE -0.2218
-3.1455 EXIT -0.2218
-3.1455 EXPONENT -0.2218
-3.1455 EXPORT -0.2218
-3.1455 FIB-A-NOCH-EE -0.2218
-2.8445 FIND -0.2218
-3.1455 FIVE -0.2218
-3.1455 FORE-GROUND -0.2218
-3.1455 FOUR -0.2218
-3.1455 FUDGE -0.2218
-3.1455 GIT-ADD -0.2218
-3.1455 GIT-ADD-ORGIN -0.2218
-3.1455 GIT-CLONE -0.2218
-3.1455 GIT-CONFIG -0.2218
-3.1455 GIT-IN-IT -0.2218
-3.1455 GIT-PUSH -0.2218
-3.1455 GIT-REMOVE -0.2218
-3.1455 GOLF -0.2218
-3.1455 GREP -0.2218
-3.1455 H-T-T-P -0.2218
-3.1455 H-T-T-P-S -0.2218
-3.1455 H-TOP -0.2218
-3.1455 HASH -0.2218
-3.1455 HOME -0.2218
-3.1455 HOST -0.2218
-3.1455 HOTEL -0.2218
-3.1455 HOUR -0.2218
-3.1455 INDIA -0.2218
-3.1455 INNER -0.2218
-3.1455 INSERT -0.2218
-3.1455 INSTALL -0.2218
-3.1455 JULIE -0.2218
-3.1455 KILL -0.2218
-3.1455 KILO -0.2218
-3.1455 L-S -0.2218
-2.8445 LEFT -0.2218
-3.1455 LEFT-BRACE -0.2218
-3.1455 LEFT-BRACKET -0.2218
-3.1455 LEFT-PA-REN -0.2218
-3.1455 LESS -0.2218
-3.1455 LIMA -0.2218
-3.1455 LINE -0.2218
-3.1455 M-K-DIR -0.2218
-3.1455 M-V -0.2218
-3.1455 MAN -0.2218
-3.1455 MIKE -0.2218
-3.1455 MINUS -0.2218
-3.1455 MINUTE -0.2218
-3.1455 MO-NAD -0.2218
-3.1455 MOD-U-LUS -0.2218
-3.1455 MONTH -0.2218
-3.1455 MULTIPLY -0.2218
-3.1455 NET -0.2218
-3.1455 NEW-WINDOW -0.2218
-3.1455 NEXT -0.2218
-3.1455 NICE-STAMP -0.2218
-3.1455 NINE -0.2218
-3.1455 NO-HUP -0.2218
-3.1455 NOVEM -0.2218
-3.1455 OKAY -0.2218
-3.1455 ONE -0.2218
-3.1455 ORG -0.2218
-3.1455 OSCAR -0.2218
-3.1455 P-I-D-OF -0.2218
-3.1455 P-S -0.2218
-3.1455 P-W-D -0.2218
-3.1455 PA-RENS -0.2218
-3.1455 PAGE-DOWN -0.2218
-3.1455 PAGE-UP -0.2218
-3.1455 PAPA -0.2218
-3.1455 PASSWORD -0.2218
-3.1455 PASTE -0.2218
-3.1455 PERCENT -0.2218
-3.1455 PIE -0.2218
-3.1455 PING -0.2218
-3.1455 PIPE -0.2218
-3.1455 PLUS -0.2218
-3.1455 PREVIOUS -0.2218
-3.1455 QUEBEC -0.2218
-3.1455 QUIT -0.2218
-3.1455 R-M -0.2218
-3.1455 RE-DIRECT -0.2218
-3.1455 RE-DIRECT-OUTPUT -0.2218
-3.1455 REDO -0.2218
-3.1455 REMAINDER -0.2218
-3.1455 REPLACE -0.2218
-3.1455 REPLACE-ALL -0.2218
-3.1455 REVERSE-SEARCH -0.2218
-2.8445 RIGHT -0.2218
-3.1455 RIGHT-BRACE -0.2218
-3.1455 RIGHT-BRACKET -0.2218
-3.1455 RIGHT-PA-REN -0.2218
-3.1455 ROMEO -0.2218
-3.1455 ROOT -0.2218
-3.1455 ROOT-PASSWORD -0.2218
-3.1455 RUN-MACRO -0.2218
-3.1455 S-S-H -0.2218
-3.1455 SAVE -0.2218
-3.1455 SEARCH -0.2218
-3.1455 SED -0.2218
-3.1455 SEE-ARRA -0.2218
-3.1455 SELECT -0.2218
-3.1455 SEMI-COLON -0.2218
-3.1455 SEVEN -0.2218
-3.1455 SHELL -0.2218
-3.1455 SHOW-ACTIVE -0.2218
-3.1455 SHUTDOWN-VOX -0.2218
-3.1455 SINGLE-QUOTE -0.2218
-3.1455 SINGLE-QUOTES -0.2218
-3.1455 SIX -0.2218
-3.1455 SLASH -0.2218
-3.1455 SPACE -0.2218
-3.1455 SPLIT -0.2218
-3.1455 STAR -0.2218
-3.1455 START-MACRO -0.2218
-3.1455 START-OF-LINE -0.2218
-3.1455 STOP -0.2218
-3.1455 STOP-MACRO -0.2218
-3.1455 SUDO -0.2218
-3.1455 SUSPEND -0.2218
-3.1455 SWITCH -0.2218
-3.1455 T-MUX -0.2218
-3.1455 TAB -0.2218
-3.1455 TACK -0.2218
-3.1455 TAG -0.2218
-3.1455 TAIL -0.2218
-3.1455 TANGO -0.2218
-3.1455 TAR -0.2218
-3.1455 THREE -0.2218
-3.1455 TIL-DA -0.2218
-3.1455 TIME-STAMP -0.2218
-3.1455 TOGGLE-CASE -0.2218
-2.8445 TOP -0.2218
-3.1455 TOUCH -0.2218
-3.1455 TREE -0.2218
-3.1455 TWO -0.2218
-3.1455 U-NAME -0.2218
-3.1455 U-U-I-D -0.2218
-2.8445 UNDO -0.2218
-3.1455 UNDO-LINE -0.2218
-3.1455 UNIFORM -0.2218
-3.1455 UNIX-STAMP -0.2218
-2.8445 UP -0.2218
-3.1455 USER -0.2218
-3.1455 VICTOR -0.2218
-3.1455 VIM -0.2218
-3.1455 VIM-R-C -0.2218
-3.1455 W-W-W -0.2218
-3.1455 WHISKEY -0.2218
-3.1455 WHO -0.2218
-3.1455 WHO-AM-I -0.2218
-3.1455 WORD -0.2218
-3.1455 X-ER -0.2218
-3.1455 YANKS -0.2218
-3.1455 YEAR -0.2218
-3.1455 ZEN -0.2218
-3.1455 ZERO -0.2218

\2-grams:
-2.6684 <s> A 0.0000
-2.6684 <s> ACTIVATE 0.0000
-2.6684 <s> AGAIN 0.0000
-2.6684 <s> ALIAS 0.0000
-2.6684 <s> ALPHA 0.0000
-2.6684 <s> AND-PER-SAND 0.0000
-2.6684 <s> APPEND 0.0000
-2.6684 <s> APT-GET 0.0000
-2.6684 <s> AUTO 0.0000
-2.6684 <s> AWK 0.0000
-2.6684 <s> BACK-SLASH 0.0000
-2.6684 <s> BACKGROUND 0.0000
-2.6684 <s> BACKSPACE 0.0000
-2.6684 <s> BACKTICK 0.0000
-2.6684 <s> BACKTICKS 0.0000
-2.6684 <s> BANG 0.0000
-2.6684 <s> BASE 0.0000
-2.6684 <s> BASH-R-C 0.0000
-2.6684 <s> BEGINNING 0.0000
-2.6684 <s> BEGINNING-OF-LINE 0.0000
-2.6684 <s> BOTTOM 0.0000
-2.6684 <s> BRACES 0.0000
-2.6684 <s> BRACKETS 0.0000
-2.6684 <s> BRAVO 0.0000
-2.6684 <s> BUNDLE-INSTALL 0.0000
-2.6684 <s> C-D 0.0000
-2.6684 <s> C-H-MOD 0.0000
-2.6684 <s> C-H-OWN 0.0000
-2.6684 <s> CAPS-LOCK 0.0000
-2.6684 <s> CARET 0.0000
-2.6684 <s> CASH 0.0000
-2.6684 <s> CAT 0.0000
-2.6684 <s> CHANGE 0.0000
-2.6684 <s> CHARLIE 0.0000
-2.6684 <s> CLEAN 0.0000
-2.6684 <s> CLEAR 0.0000
-2.6684 <s> CLOSE 0.0000
-2.6684 <s> COLON 0.0000
-2.6684 <s> COM 0.0000
-2.6684 <s> COMMA 0.0000
-2.6684 <s> COPY 0.0000
-2.6684 <s> CURL 0.0000
-2.6684 <s> CUT 0.0000
-2.6684 <s> CYCLE 0.0000
-2.6684 <s> CYCLE-WINDOW 0.0000
-2.6684 <s> D-F 0.0000
-2.6684 <s> DATE 0.0000
-2.6684 <s> DATE-STAMP 0.0000
-2.6684 <s> DAY 0.0000
-2.6684 <s> DE-ACTIVATE 0.0000
-2.6684 <s> DE-SELECT 0.0000
-2.3674 <s> DELETE 0.0000
-2.6684 <s> DELETE-LINE 0.0000
-2.6684 <s> DELTA 0.0000
-2.6684 <s> DIVIDE 0.0000
-2.6684 <s> DOT 0.0000
-2.6684 <s> DOUBLE-QUOTE 0.0000
-2.6684 <s> DOUBLE-QUOTES 0.0000
-2.3674 <s> DOWN 0.0000
-2.6684 <s> ECHO 0.0000
-2.6684 <s> EDIT 0.0000
-2.6684 <s> EDITOR 0.0000
-2.6684 <s> EIGHT 0.0000
-2.6684 <s> END 0.0000
-2.3674 <s> END-OF-LINE 0.0000
-2.6684 <s> ESCAPE 0.0000
-2.6684 <s> ET 0.0000
-2.6684 <s> EXECUTE 0.0000
-2.6684 <s> EXIT 0.0000
-2.6684 <s> EXPONENT 0.0000
-2.6684 <s> EXPORT 0.0000
-2.6684 <s> FIB-A-NOCH-EE 0.0000
-2.3674 <s> FIND 0.0000
-2.6684 <s> FIVE 0.0000
-2.6684 <s> FORE-GROUND 0.0000
-2.6684 <s> FOUR 0.0000
-2.6684 <s> FUDGE 0.0000
-2.6684 <s> GIT-ADD 0.0000
-2.6684 <s> GIT-ADD-ORGIN 0.0000
-2.6684 <s> GIT-CLONE 0.0000
-2.6684 <s> GIT-CONFIG 0.0000
-2.6684 <s> GIT-IN-IT 0.0000
-2.6684 <s> GIT-PUSH 0.0000
-2.6684 <s> GIT-REMOVE 0.0000
-2.6684 <s> GOLF 0.0000
-2.6684 <s> GREP 0.0000
-2.6684 <s> H-T-T-P 0.0000
-2.6684 <s> H-T-T-P-S 0.0000
-2.6684 <s> H-TOP 0.0000
-2.6684 <s> HASH 0.0000
-2.6684 <s> HOME 0.0000
-2.6684 <s> HOST 0.0000
-2.6684 <s> HOTEL 0.0000
-2.6684 <s> HOUR 0.0000
-2.6684 <s> INDIA 0.0000
-2.6684 <s> INNER 0.0000
-2.6684 <s> INSERT 0.0000
-2.6684 <s> INSTALL 0.0000
-2.6684 <s> JULIE 0.0000
-2.6684 <s> KILL 0.0000
-2.6684 <s> KILO 0.0000
-2.6684 <s> L-S 0.0000
-2.3674 <s> LEFT 0.0000
-2.6684 <s> LEFT-BRACE 0.0000
-2.6684 <s> LEFT-BRACKET 0.0000
-2.6684 <s> LEFT-PA-REN 0.0000
-2.6684 <s> LESS 0.0000
-2.6684 <s> LIMA 0.0000
-2.6684 <s> LINE 0.0000
-2.6684 <s> M-K-DIR 0.0000
-2.6684 <s> M-V 0.0000
-2.6684 <s> MAN 0.0000
-2.6684 <s> MIKE 0.0000
-2.6684 <s> MINUS 0.0000
-2.6684 <s> MINUTE 0.0000
-2.6684 <s> MO-NAD 0.0000
-2.6684 <s> MOD-U-LUS 0.0000
-2.6684 <s> MONTH 0.0000
-2.6684 <s> MULTIPLY 0.0000
-2.6684 <s> NET 0.0000
-2.6684 <s> NEW-WINDOW 0.0000
-2.6684 <s> NEXT 0.0000
-2.6684 <s> NICE-STAMP 0.0000
-2.6684 <s> NINE 0.0000
-2.6684 <s> NO-HUP 0.0000
-2.6684 <s> NOVEM 0.0000
-2.6684 <s> OKAY 0.0000
-2.6684 <s> ONE 0.0000
-2.6684 <s> ORG 0.0000
-2.6684 <s> OSCAR 0.0000
-2.6684 <s> P-I-D-OF 0.0000
-2.6684 <s> P-S 0.0000
-2.6684 <s> P-W-D 0.0000
-2.6684 <s> PA-RENS 0.0000
-2.6684 <s> PAGE-DOWN 0.0000
-2.6684 <s> PAGE-UP 0.0000
-2.6684 <s> PAPA 0.0000
-2.6684 <s> PASSWORD 0.0000
-2.6684 <s> PASTE 0.0000
-2.6684 <s> PERCENT 0.0000
-2.6684 <s> PIE 0.0000
-2.6684 <s> PING 0.0000
-2.6684 <s> PIPE 0.0000
-2.6684 <s> PLUS 0.0000
-2.6684 <s> PREVIOUS 0.0000
-2.6684 <s> QUEBEC 0.0000
-2.6684 <s> QUIT 0.0000
-2.6684 <s> R-M 0.0000
-2.6684 <s> RE-DIRECT 0.0000
-2.6684 <s> RE-DIRECT-OUTPUT 0.0000
-2.6684 <s> REDO 0.0000
-2.6684 <s> REMAINDER 0.0000
-2.6684 <s> REPLACE 0.0000
-2.6684 <s> REPLACE-ALL 0.0000
-2.6684 <s> REVERSE-SEARCH 0.0000
-2.3674 <s> RIGHT 0.0000
-2.6684 <s> RIGHT-BRACE 0.0000
-2.6684 <s> RIGHT-BRACKET 0.0000
-2.6684 <s> RIGHT-PA-REN 0.0000
-2.6684 <s> ROMEO 0.0000
-2.6684 <s> ROOT 0.0000
-2.6684 <s> ROOT-PASSWORD 0.0000
-2.6684 <s> RUN-MACRO 0.0000
-2.6684 <s> S-S-H 0.0000
-2.6684 <s> SAVE 0.0000
-2.6684 <s> SEARCH 0.0000
-2.6684 <s> SED 0.0000
-2.6684 <s> SEE-ARRA 0.0000
-2.6684 <s> SELECT 0.0000
-2.6684 <s> SEMI-COLON 0.0000
-2.6684 <s> SEVEN 0.0000
-2.6684 <s> SHELL 0.0000
-2.6684 <s> SHOW-ACTIVE 0.0000
-2.6684 <s> SHUTDOWN-VOX 0.0000
-2.6684 <s> SINGLE-QUOTE 0.0000
-2.6684 <s> SINGLE-QUOTES 0.0000
-2.6684 <s> SIX 0.0000
-2.6684 <s> SLASH 0.0000
-2.6684 <s> SPACE 0.0000
-2.6684 <s> SPLIT 0.0000
-2.6684 <s> STAR 0.0000
-2.6684 <s> START-MACRO 0.0000
-2.6684 <s> START-OF-LINE 0.0000
-2.6684 <s> STOP 0.0000
-2.6684 <s> STOP-MACRO 0.0000
-2.6684 <s> SUDO 0.0000
-2.6684 <s> SUSPEND 0.0000
-2.6684 <s> SWITCH 0.0000
-2.6684 <s> T-MUX 0.0000
-2.6684 <s> TAB 0.0000
-2.6684 <s> TACK 0.0000
-2.6684 <s> TAG 0.0000
-2.6684 <s> TAIL 0.0000
-2.6684 <s> TANGO 0.0000
-2.6684 <s> TAR 0.0000
-2.6684 <s> THREE 0.0000
-2.6684 <s> TIL-DA 0.0000
-2.6684 <s> TIME-STAMP 0.0000
-2.6684 <s> TOGGLE-CASE 0.0000
-2.3674 <s> TOP 0.0000
-2.6684 <s> TOUCH 0.0000
-2.6684 <s> TREE 0.0000
-2.6684 <s> TWO 0.0000
-2.6684 <s> U-NAME 0.0000
-2.6684 <s> U-U-I-D 0.0000
-2.3674 <s> UNDO 0.0000
-2.6684 <s> UNDO-LINE 0.0000
-2.6684 <s> UNIFORM 0.0000
-2.6684 <s> UNIX-STAMP 0.0000
-2.3674 <s> UP 0.0000
-2.6684 <s> USER 0.0000
-2.6684 <s> VICTOR 0.0000
-2.6684 <s> VIM 0.0000
-2.6684 <s> VIM-R-C 0.0000
-2.6684 <s> W-W-W 0.0000
-2.6684 <s> WHISKEY 0.0000
-2.6684 <s> WHO 0.0000
-2.6684 <s> WHO-AM-I 0.0000
-2.6684 <s> WORD 0.0000
-2.6684 <s> X-ER 0.0000
-2.6684 <s> YANKS 0.0000
-2.6684 <s> YEAR 0.0000
-2.6684 <s> ZEN 0.0000
-2.6684 <s> ZERO 0.0000
-0.3010 A </s> -0.3010
-0.3010 ACTIVATE </s> -0.3010
-0.3010 AGAIN </s> -0.3010
-0.3010 ALIAS </s> -0.3010
-0.3010 ALPHA </s> -0.3010
-0.3010 AND-PER-SAND </s> -0.3010
-0.3010 APPEND </s> -0.3010
-0.3010 APT-GET </s> -0.3010
-0.3010 AUTO </s> -0.3010
-0.3010 AWK </s> -0.3010
-0.3010 BACK-SLASH </s> -0.3010
-0.3010 BACKGROUND </s> -0.3010
-0.3010 BACKSPACE </s> -0.3010
-0.3010 BACKTICK </s> -0.3010
-0.3010 BACKTICKS </s> -0.3010
-0.3010 BANG </s> -0.3010
-0.3010 BASE </s> -0.3010
-0.3010 BASH-R-C </s> -0.3010
-0.3010 BEGINNING </s> -0.3010
-0.3010 BEGINNING-OF-LINE </s> -0.3010
-0.3010 BOTTOM </s> -0.3010
-0.3010 BRACES </s> -0.3010
-0.3010 BRACKETS </s> -0.3010
-0.3010 BRAVO </s> -0.3010
-0.3010 BUNDLE-INSTALL </s> -0.3010
-0.3010 C-D </s> -0.3010
-0.3010 C-H-MOD </s> -0.3010
-0.3010 C-H-OWN </s> -0.3010
-0.3010 CAPS-LOCK </s> -0.3010
-0.3010 CARET </s> -0.3010
-0.3010 CASH </s> -0.3010
-0.3010 CAT </s> -0.3010
-0.3010 CHANGE </s> -0.3010
-0.3010 CHARLIE </s> -0.3010
-0.3010 CLEAN </s> -0.3010
-0.3010 CLEAR </s> -0.3010
-0.3010 CLOSE </s> -0.3010
-0.3010 COLON </s> -0.3010
-0.3010 COM </s> -0.3010
-0.3010 COMMA </s> -0.3010
-0.3010 COPY </s> -0.3010
-0.3010 CURL </s> -0.3010
-0.3010 CUT </s> -0.3010
-0.3010 CYCLE </s> -0.3010
-0.3010 CYCLE-WINDOW </s> -0.3010
-0.3010 D-F </s> -0.3010
-0.3010 DATE </s> -0.3010
-0.3010 DATE-STAMP </s> -0.3010
-0.3010 DAY </s> -0.3010
-0.3010 DE-ACTIVATE </s> -0.3010
-0.3010 DE-SELECT </s> -0.3010
-0.3010 DELETE </s> -0.3010
-0.3010 DELETE-LINE </s> -0.3010
-0.3010 DELTA </s> -0.3010
-0.3010 DIVIDE </s> -0.3010
-0.3010 DOT </s> -0.3010
-0.3010 DOUBLE-QUOTE </s> -0.3010
-0.3010 DOUBLE-QUOTES </s> -0.3010
-0.3010 DOWN </s> -0.3010
-0.3010 ECHO </s> -0.3010
-0.3010 EDIT </s> -0.3010
-0.3010 EDITOR </s> -0.3010
-0.3010 EIGHT </s> -0.3010
-0.3010 END </s> -0.3010
-0.3010 END-OF-LINE </s> -0.3010
-0.3010 ESCAPE </s> -0.3010
-0.3010 ET </s> -0.3010
-0.3010 EXECUTE </s> -0.3010
-0.3010 EXIT </s> -0.3010
-0.3010 EXPONENT </s> -0.3010
-0.3010 EXPORT </s> -0.3010
-0.3010 FIB-A-NOCH-EE </s> -0.3010
-0.3010 FIND </s> -0.3010
-0.3010 FIVE </s> -0.3010
-0.3010 FORE-GROUND </s> -0.3010
-0.3010 FOUR </s> -0.3010
-0.3010 FUDGE </s> -0.3010
-0.3010 GIT-ADD </s> -0.3010
-0.3010 GIT-ADD-ORGIN </s> -0.3010
-0.3010 GIT-CLONE </s> -0.3010
-0.3010 GIT-CONFIG </s> -0.3010
-0.3010 GIT-IN-IT </s> -0.3010
-0.3010 GIT-PUSH </s> -0.3010
-0.3010 GIT-REMOVE </s> -0.3010
-0.3010 GOLF </s> -0.3010
-0.3010 GREP </s> -0.3010
-0.3010 H-T-T-P </s> -0.3010
-0.3010 H-T-T-P-S </s> -0.3010
-0.3010 H-TOP </s> -0.3010
-0.3010 HASH </s> -0.3010
-0.3010 HOME </s> -0.3010
-0.3010 HOST </s> -0.3010
-0.3010 HOTEL </s> -0.3010
-0.3010 HOUR </s> -0.3010
-0.3010 INDIA </s> -0.3010
-0.3010 INNER </s> -0.3010
-0.3010 INSERT </s> -0.3010
-0.3010 INSTALL </s> -0.3010
-0.3010 JULIE </s> -0.3010
-0.3010 KILL </s> -0.3010
-0.3010 KILO </s> -0.3010
-0.3010 L-S </s> -0.3010
-0.3010 LEFT </s> -0.3010
-0.3010 LEFT-BRACE </s> -0.3010
-0.3010 LEFT-BRACKET </s> -0.3010
-0.3010 LEFT-PA-REN </s> -0.3010
-0.3010 LESS </s> -0.3010
-0.3010 LIMA </s> -0.3010
-0.3010 LINE </s> -0.3010
-0.3010 M-K-DIR </s> -0.3010
-0.3010 M-V </s> -0.3010
-0.3010 MAN </s> -0.3010
-0.3010 MIKE </s> -0.3010
-0.3010 MINUS </s> -0.3010
-0.3010 MINUTE </s> -0.3010
-0.3010 MO-NAD </s> -0.3010
-0.3010 MOD-U-LUS </s> -0.3010
-0.3010 MONTH </s> -0.3010
-0.3010 MULTIPLY </s> -0.3010
-0.3010 NET </s> -0.3010
-0.3010 NEW-WINDOW </s> -0.3010
-0.3010 NEXT </s> -0.3010
-0.3010 NICE-STAMP </s> -0.3010
-0.3010 NINE </s> -0.3010
-0.3010 NO-HUP </s> -0.3010
-0.3010 NOVEM </s> -0.3010
-0.3010 OKAY </s> -0.3010
-0.3010 ONE </s> -0.3010
-0.3010 ORG </s> -0.3010
-0.3010 OSCAR </s> -0.3010
-0.3010 P-I-D-OF </s> -0.3010
-0.3010 P-S </s> -0.3010
-0.3010 P-W-D </s> -0.3010
-0.3010 PA-RENS </s> -0.3010
-0.3010 PAGE-DOWN </s> -0.3010
-0.3010 PAGE-UP </s> -0.3010
-0.3010 PAPA </s> -0.3010
-0.3010 PASSWORD </s> -0.3010
-0.3010 PASTE </s> -0.3010
-0.3010 PERCENT </s> -0.3010
-0.3010 PIE </s> -0.3010
-0.3010 PING </s> -0.3010
-0.3010 PIPE </s> -0.3010
-0.3010 PLUS </s> -0.3010
-0.3010 PREVIOUS </s> -0.3010
-0.3010 QUEBEC </s> -0.3010
-0.3010 QUIT </s> -0.3010
-0.3010 R-M </s> -0.3010
-0.3010 RE-DIRECT </s> -0.3010
-0.3010 RE-DIRECT-OUTPUT </s> -0.3010
-0.3010 REDO </s> -0.3010
-0.3010 REMAINDER </s> -0.3010
-0.3010 REPLACE </s> -0.3010
-0.3010 REPLACE-ALL </s> -0.3010
-0.3010 REVERSE-SEARCH </s> -0.3010
-0.3010 RIGHT </s> -0.3010
-0.3010 RIGHT-BRACE </s> -0.3010
-0.3010 RIGHT-BRACKET </s> -0.3010
-0.3010 RIGHT-PA-REN </s> -0.3010
-0.3010 ROMEO </s> -0.3010
-0.3010 ROOT </s> -0.3010
-0.3010 ROOT-PASSWORD </s> -0.3010
-0.3010 RUN-MACRO </s> -0.3010
-0.3010 S-S-H </s> -0.3010
-0.3010 SAVE </s> -0.3010
-0.3010 SEARCH </s> -0.3010
-0.3010 SED </s> -0.3010
-0.3010 SEE-ARRA </s> -0.3010
-0.3010 SELECT </s> -0.3010
-0.3010 SEMI-COLON </s> -0.3010
-0.3010 SEVEN </s> -0.3010
-0.3010 SHELL </s> -0.3010
-0.3010 SHOW-ACTIVE </s> -0.3010
-0.3010 SHUTDOWN-VOX </s> -0.3010
-0.3010 SINGLE-QUOTE </s> -0.3010
-0.3010 SINGLE-QUOTES </s> -0.3010
-0.3010 SIX </s> -0.3010
-0.3010 SLASH </s> -0.3010
-0.3010 SPACE </s> -0.3010
-0.3010 SPLIT </s> -0.3010
-0.3010 STAR </s> -0.3010
-0.3010 START-MACRO </s> -0.3010
-0.3010 START-OF-LINE </s> -0.3010
-0.3010 STOP </s> -0.3010
-0.3010 STOP-MACRO </s> -0.3010
-0.3010 SUDO </s> -0.3010
-0.3010 SUSPEND </s> -0.3010
-0.3010 SWITCH </s> -0.3010
-0.3010 T-MUX </s> -0.3010
-0.3010 TAB </s> -0.3010
-0.3010 TACK </s> -0.3010
-0.3010 TAG </s> -0.3010
-0.3010 TAIL </s> -0.3010
-0.3010 TANGO </s> -0.3010
-0.3010 TAR </s> -0.3010
-0.3010 THREE </s> -0.3010
-0.3010 TIL-DA </s> -0.3010
-0.3010 TIME-STAMP </s> -0.3010
-0.3010 TOGGLE-CASE </s> -0.3010
-0.3010 TOP </s> -0.3010
-0.3010 TOUCH </s> -0.3010
-0.3010 TREE </s> -0.3010
-0.3010 TWO </s> -0.3010
-0.3010 U-NAME </s> -0.3010
-0.3010 U-U-I-D </s> -0.3010
-0.3010 UNDO </s> -0.3010
-0.3010 UNDO-LINE </s> -0.3010
-0.3010 UNIFORM </s> -0.3010
-0.3010 UNIX-STAMP </s> -0.3010
-0.3010 UP </s> -0.3010
-0.3010 USER </s> -0.3010
-0.3010 VICTOR </s> -0.3010
-0.3010 VIM </s> -0.3010
-0.3010 VIM-R-C </s> -0.3010
-0.3010 W-W-W </s> -0.3010
-0.3010 WHISKEY </s> -0.3010
-0.3010 WHO </s> -0.3010
-0.3010 WHO-AM-I </s> -0.3010
-0.3010 WORD </s> -0.3010
-0.3010 X-ER </s> -0.3010
-0.3010 YANKS </s> -0.3010
-0.3010 YEAR </s> -0.3010
-0.3010 ZEN </s> -0.3010
-0.3010 ZERO </s> -0.3010

\3-grams:
-0.3010 <s> A </s>
-0.3010 <s> ACTIVATE </s>
-0.3010 <s> AGAIN </s>
-0.3010 <s> ALIAS </s>
-0.3010 <s> ALPHA </s>
-0.3010 <s> AND-PER-SAND </s>
-0.3010 <s> APPEND </s>
-0.3010 <s> APT-GET </s>
-0.3010 <s> AUTO </s>
-0.3010 <s> AWK </s>
-0.3010 <s> BACK-SLASH </s>
-0.3010 <s> BACKGROUND </s>
-0.3010 <s> BACKSPACE </s>
-0.3010 <s> BACKTICK </s>
-0.3010 <s> BACKTICKS </s>
-0.3010 <s> BANG </s>
-0.3010 <s> BASE </s>
-0.3010 <s> BASH-R-C </s>
-0.3010 <s> BEGINNING </s>
-0.3010 <s> BEGINNING-OF-LINE </s>
-0.3010 <s> BOTTOM </s>
-0.3010 <s> BRACES </s>
-0.3010 <s> BRACKETS </s>
-0.3010 <s> BRAVO </s>
-0.3010 <s> BUNDLE-INSTALL </s>
-0.3010 <s> C-D </s>
-0.3010 <s> C-H-MOD </s>
-0.3010 <s> C-H-OWN </s>
-0.3010 <s> CAPS-LOCK </s>
-0.3010 <s> CARET </s>
-0.3010 <s> CASH </s>
-0.3010 <s> CAT </s>
-0.3010 <s> CHANGE </s>
-0.3010 <s> CHARLIE </s>
-0.3010 <s> CLEAN </s>
-0.3010 <s> CLEAR </s>
-0.3010 <s> CLOSE </s>
-0.3010 <s> COLON </s>
-0.3010 <s> COM </s>
-0.3010 <s> COMMA </s>
-0.3010 <s> COPY </s>
-0.3010 <s> CURL </s>
-0.3010 <s> CUT </s>
-0.3010 <s> CYCLE </s>
-0.3010 <s> CYCLE-WINDOW </s>
-0.3010 <s> D-F </s>
-0.3010 <s> DATE </s>
-0.3010 <s> DATE-STAMP </s>
-0.3010 <s> DAY </s>
-0.3010 <s> DE-ACTIVATE </s>
-0.3010 <s> DE-SELECT </s>
-0.3010 <s> DELETE </s>
-0.3010 <s> DELETE-LINE </s>
-0.3010 <s> DELTA </s>
-0.3010 <s> DIVIDE </s>
-0.3010 <s> DOT </s>
-0.3010 <s> DOUBLE-QUOTE </s>
-0.3010 <s> DOUBLE-QUOTES </s>
-0.3010 <s> DOWN </s>
-0.3010 <s> ECHO </s>
-0.3010 <s> EDIT </s>
-0.3010 <s> EDITOR </s>
-0.3010 <s> EIGHT </s>
-0.3010 <s> END </s>
-0.3010 <s> END-OF-LINE </s>
-0.3010 <s> ESCAPE </s>
-0.3010 <s> ET </s>
-0.3010 <s> EXECUTE </s>
-0.3010 <s> EXIT </s>
-0.3010 <s> EXPONENT </s>
-0.3010 <s> EXPORT </s>
-0.3010 <s> FIB-A-NOCH-EE </s>
-0.3010 <s> FIND </s>
-0.3010 <s> FIVE </s>
-0.3010 <s> FORE-GROUND </s>
-0.3010 <s> FOUR </s>
-0.3010 <s> FUDGE </s>
-0.3010 <s> GIT-ADD </s>
-0.3010 <s> GIT-ADD-ORGIN </s>
-0.3010 <s> GIT-CLONE </s>
-0.3010 <s> GIT-CONFIG </s>
-0.3010 <s> GIT-IN-IT </s>
-0.3010 <s> GIT-PUSH </s>
-0.3010 <s> GIT-REMOVE </s>
-0.3010 <s> GOLF </s>
-0.3010 <s> GREP </s>
-0.3010 <s> H-T-T-P </s>
-0.3010 <s> H-T-T-P-S </s>
-0.3010 <s> H-TOP </s>
-0.3010 <s> HASH </s>
-0.3010 <s> HOME </s>
-0.3010 <s> HOST </s>
-0.3010 <s> HOTEL </s>
-0.3010 <s> HOUR </s>
-0.3010 <s> INDIA </s>
-0.3010 <s> INNER </s>
-0.3010 <s> INSERT </s>
-0.3010 <s> INSTALL </s>
-0.3010 <s> JULIE </s>
-0.3010 <s> KILL </s>
-0.3010 <s> KILO </s>
-0.3010 <s> L-S </s>
-0.3010 <s> LEFT </s>
-0.3010 <s> LEFT-BRACE </s>
-0.3010 <s> LEFT-BRACKET </s>
-0.3010 <s> LEFT-PA-REN </s>
-0.3010 <s> LESS </s>
-0.3010 <s> LIMA </s>
-0.3010 <s> LINE </s>
-0.3010 <s> M-K-DIR </s>
-0.3010 <s> M-V </s>
-0.3010 <s> MAN </s>
-0.3010 <s> MIKE </s>
-0.3010 <s> MINUS </s>
-0.3010 <s> MINUTE </s>
-0.3010 <s> MO-NAD </s>
-0.3010 <s> MOD-U-LUS </s>
-0.3010 <s> MONTH </s>
-0.3010 <s> MULTIPLY </s>
-0.3010 <s> NET </s>
-0.3010 <s> NEW-WINDOW </s>
-0.3010 <s> NEXT </s>
-0.3010 <s> NICE-STAMP </s>
-0.3010 <s> NINE </s>
-0.3010 <s> NO-HUP </s>
-0.3010 <s> NOVEM </s>
-0.3010 <s> OKAY </s>
-0.3010 <s> ONE </s>
-0.3010 <s> ORG </s>
-0.3010 <s> OSCAR </s>
-0.3010 <s> P-I-D-OF </s>
-0.3010 <s> P-S </s>
-0.3010 <s> P-W-D </s>
-0.3010 <s> PA-RENS </s>
-0.3010 <s> PAGE-DOWN </s>
-0.3010 <s> PAGE-UP </s>
-0.3010 <s> PAPA </s>
-0.3010 <s> PASSWORD </s>
-0.3010 <s> PASTE </s>
-0.3010 <s> PERCENT </s>
-0.3010 <s> PIE </s>
-0.3010 <s> PING </s>
-0.3010 <s> PIPE </s>
-0.3010 <s> PLUS </s>
-0.3010 <s> PREVIOUS </s>
-0.3010 <s> QUEBEC </s>
-0.3010 <s> QUIT </s>
-0.3010 <s> R-M </s>
-0.3010 <s> RE-DIRECT </s>
-0.3010 <s> RE-DIRECT-OUTPUT </s>
-0.3010 <s> REDO </s>
-0.3010 <s> REMAINDER </s>
-0.3010 <s> REPLACE </s>
-0.3010 <s> REPLACE-ALL </s>
-0.3010 <s> REVERSE-SEARCH </s>
-0.3010 <s> RIGHT </s>
-0.3010 <s> RIGHT-BRACE </s>
-0.3010 <s> RIGHT-BRACKET </s>
-0.3010 <s> RIGHT-PA-REN </s>
-0.3010 <s> ROMEO </s>
-0.3010 <s> ROOT </s>
-0.3010 <s> ROOT-PASSWORD </s>
-0.3010 <s> RUN-MACRO </s>
-0.3010 <s> S-S-H </s>
-0.3010 <s> SAVE </s>
-0.3010 <s> SEARCH </s>
-0.3010 <s> SED </s>
-0.3010 <s> SEE-ARRA </s>
-0.3010 <s> SELECT </s>
-0.3010 <s> SEMI-COLON </s>
-0.3010 <s> SEVEN </s>
-0.3010 <s> SHELL </s>
-0.3010 <s> SHOW-ACTIVE </s>
-0.3010 <s> SHUTDOWN-VOX </s>
-0.3010 <s> SINGLE-QUOTE </s>
-0.3010 <s> SINGLE-QUOTES </s>
-0.3010 <s> SIX </s>
-0.3010 <s> SLASH </s>
-0.3010 <s> SPACE </s>
-0.3010 <s> SPLIT </s>
-0.3010 <s> STAR </s>
-0.3010 <s> START-MACRO </s>
-0.3010 <s> START-OF-LINE </s>
-0.3010 <s> STOP </s>
-0.3010 <s> STOP-MACRO </s>
-0.3010 <s> SUDO </s>
-0.3010 <s> SUSPEND </s>
-0.3010 <s> SWITCH </s>
-0.3010 <s> T-MUX </s>
-0.3010 <s> TAB </s>
-0.3010 <s> TACK </s>
-0.3010 <s> TAG </s>
-0.3010 <s> TAIL </s>
-0.3010 <s> TANGO </s>
-0.3010 <s> TAR </s>
-0.3010 <s> THREE </s>
-0.3010 <s> TIL-DA </s>
-0.3010 <s> TIME-STAMP </s>
-0.3010 <s> TOGGLE-CASE </s>
-0.3010 <s> TOP </s>
-0.3010 <s> TOUCH </s>
-0.3010 <s> TREE </s>
-0.3010 <s> TWO </s>
-0.3010 <s> U-NAME </s>
-0.3010 <s> U-U-I-D </s>
-0.3010 <s> UNDO </s>
-0.3010 <s> UNDO-LINE </s>
-0.3010 <s> UNIFORM </s>
-0.3010 <s> UNIX-STAMP </s>
-0.3010 <s> UP </s>
-0.3010 <s> USER </s>
-0.3010 <s> VICTOR </s>
-0.3010 <s> VIM </s>
-0.3010 <s> VIM-R-C </s>
-0.3010 <s> W-W-W </s>
-0.3010 <s> WHISKEY </s>
-0.3010 <s> WHO </s>
-0.3010 <s> WHO-AM-I </s>
-0.3010 <s> WORD </s>
-0.3010 <s> X-ER </s>
-0.3010 <s> YANKS </s>
-0.3010 <s> YEAR </s>
-0.3010 <s> ZEN </s>
-0.3010 <s> ZERO </s>

\end\
