Language model created by QuickLM on Thu Aug  1 22:24:31 EDT 2013
Copyright (c) 1996-2010 Carnegie Mellon University and Alexander I. Rudnicky

The model is in standard ARPA format, designed by Doug Paul while he was at MITRE.

The code that was used to produce this language model is available in Open Source.
Please visit http://www.speech.cs.cmu.edu/tools/ for more information

The (fixed) discount mass is 0.5. The backoffs are computed using the ratio method.
This model based on a corpus of 237 sentences and 230 words

\data\
ngram 1=230
ngram 2=456
ngram 3=228

\1-grams:
-0.7782 </s> -0.3010
-0.7782 <s> -0.2218
-3.1529 A -0.2218
-3.1529 ACTIVATE -0.2218
-3.1529 AGAIN -0.2218
-3.1529 ALIAS -0.2218
-3.1529 ALPHA -0.2218
-3.1529 AND-PER-SAND -0.2218
-3.1529 APPEND -0.2218
-3.1529 APT-GET -0.2218
-3.1529 AUTO -0.2218
-3.1529 AWK -0.2218
-3.1529 BACK-SLASH -0.2218
-3.1529 BACKGROUND -0.2218
-3.1529 BACKSPACE -0.2218
-3.1529 BACKTICK -0.2218
-3.1529 BACKTICKS -0.2218
-3.1529 BANG -0.2218
-3.1529 BASE -0.2218
-3.1529 BASH-R-C -0.2218
-3.1529 BEGINNING -0.2218
-3.1529 BEGINNING-OF-LINE -0.2218
-3.1529 BOTTOM -0.2218
-3.1529 BRACES -0.2218
-3.1529 BRACKETS -0.2218
-3.1529 BRAVO -0.2218
-3.1529 BUNDLE-INSTALL -0.2218
-3.1529 C-D -0.2218
-3.1529 C-H-MOD -0.2218
-3.1529 C-H-OWN -0.2218
-3.1529 CAPS-LOCK -0.2218
-3.1529 CARET -0.2218
-3.1529 CASH -0.2218
-3.1529 CAT -0.2218
-3.1529 CHANGE -0.2218
-3.1529 CHARLIE -0.2218
-3.1529 CLEAN -0.2218
-3.1529 CLEAR -0.2218
-3.1529 CLOSE -0.2218
-3.1529 COLON -0.2218
-3.1529 COM -0.2218
-3.1529 COMMA -0.2218
-3.1529 COPY -0.2218
-3.1529 CURL -0.2218
-3.1529 CUT -0.2218
-3.1529 CYCLE -0.2218
-3.1529 CYCLE-WINDOW -0.2218
-3.1529 D-F -0.2218
-3.1529 DATE -0.2218
-3.1529 DATE-STAMP -0.2218
-3.1529 DAY -0.2218
-3.1529 DE-ACTIVATE -0.2218
-3.1529 DE-SELECT -0.2218
-2.8519 DELETE -0.2218
-3.1529 DELETE-LINE -0.2218
-3.1529 DELTA -0.2218
-3.1529 DIVIDE -0.2218
-3.1529 DOT -0.2218
-3.1529 DOUBLE-QUOTE -0.2218
-3.1529 DOUBLE-QUOTES -0.2218
-2.8519 DOWN -0.2218
-3.1529 ECHO -0.2218
-3.1529 EDIT -0.2218
-3.1529 EDITOR -0.2218
-3.1529 EIGHT -0.2218
-3.1529 END -0.2218
-2.8519 END-OF-LINE -0.2218
-3.1529 ESCAPE -0.2218
-3.1529 ET -0.2218
-3.1529 EXECUTE -0.2218
-3.1529 EXIT -0.2218
-3.1529 EXPONENT -0.2218
-3.1529 EXPORT -0.2218
-3.1529 FIB-A-NOCH-EE -0.2218
-2.8519 FIND -0.2218
-3.1529 FIVE -0.2218
-3.1529 FORE-GROUND -0.2218
-3.1529 FOUR -0.2218
-3.1529 FOXTROT -0.2218
-3.1529 G-MAIL -0.2218
-3.1529 GIT-ADD -0.2218
-3.1529 GIT-ADD-ORGIN -0.2218
-3.1529 GIT-CLONE -0.2218
-3.1529 GIT-CONFIG -0.2218
-3.1529 GIT-IN-IT -0.2218
-3.1529 GIT-PUSH -0.2218
-3.1529 GIT-REMOVE -0.2218
-3.1529 GOLF -0.2218
-3.1529 GOOGLE -0.2218
-3.1529 GREP -0.2218
-3.1529 H-T-T-P -0.2218
-3.1529 H-T-T-P-S -0.2218
-3.1529 H-TOP -0.2218
-3.1529 HASH -0.2218
-3.1529 HOME -0.2218
-3.1529 HOST -0.2218
-3.1529 HOTEL -0.2218
-3.1529 HOUR -0.2218
-3.1529 INDIA -0.2218
-3.1529 INNER -0.2218
-3.1529 INSERT -0.2218
-3.1529 INSTALL -0.2218
-3.1529 JULIE -0.2218
-3.1529 KILL -0.2218
-3.1529 KILO -0.2218
-3.1529 L-S -0.2218
-2.8519 LEFT -0.2218
-3.1529 LEFT-ARROWKEY -0.2218
-3.1529 LEFT-BRACE -0.2218
-3.1529 LEFT-BRACKET -0.2218
-3.1529 LEFT-PA-REN -0.2218
-3.1529 LESS -0.2218
-3.1529 LIMA -0.2218
-3.1529 LINE -0.2218
-3.1529 M-K-DIR -0.2218
-3.1529 M-V -0.2218
-3.1529 MAN -0.2218
-3.1529 MIKE -0.2218
-3.1529 MINUS -0.2218
-3.1529 MINUTE -0.2218
-3.1529 MO-NAD -0.2218
-3.1529 MOD-U-LUS -0.2218
-3.1529 MONTH -0.2218
-3.1529 MULTIPLY -0.2218
-3.1529 NET -0.2218
-3.1529 NEW-WINDOW -0.2218
-3.1529 NEXT -0.2218
-3.1529 NICE-STAMP -0.2218
-3.1529 NINE -0.2218
-3.1529 NO-HUP -0.2218
-3.1529 NOVEMBER -0.2218
-3.1529 OKAY -0.2218
-3.1529 ONE -0.2218
-3.1529 ORG -0.2218
-3.1529 OSCAR -0.2218
-3.1529 P-I-D-OF -0.2218
-3.1529 P-S -0.2218
-3.1529 P-W-D -0.2218
-3.1529 PA-RENS -0.2218
-3.1529 PAGE-DOWN -0.2218
-3.1529 PAGE-UP -0.2218
-3.1529 PAPA -0.2218
-3.1529 PASSWORD -0.2218
-3.1529 PASTE -0.2218
-3.1529 PERCENT -0.2218
-3.1529 PIE -0.2218
-3.1529 PING -0.2218
-3.1529 PIPE -0.2218
-3.1529 PLUS -0.2218
-3.1529 PREVIOUS -0.2218
-3.1529 QUEBEC -0.2218
-3.1529 QUIT -0.2218
-3.1529 R-M -0.2218
-3.1529 RE-DIRECT -0.2218
-3.1529 RE-DIRECT-OUTPUT -0.2218
-3.1529 REDO -0.2218
-3.1529 REMAINDER -0.2218
-3.1529 REPLACE -0.2218
-3.1529 REVERSE-SEARCH -0.2218
-2.8519 RIGHT -0.2218
-3.1529 RIGHT-ARROWKEY -0.2218
-3.1529 RIGHT-BRACE -0.2218
-3.1529 RIGHT-BRACKET -0.2218
-3.1529 RIGHT-PA-REN -0.2218
-3.1529 ROMEO -0.2218
-3.1529 ROOT -0.2218
-3.1529 ROOT-PASSWORD -0.2218
-3.1529 RUN-MACRO -0.2218
-3.1529 S-S-H -0.2218
-3.1529 SAVE -0.2218
-3.1529 SCOTT-CAG-NO -0.2218
-3.1529 SEARCH -0.2218
-3.1529 SED -0.2218
-3.1529 SEE-ARRA -0.2218
-3.1529 SELECT -0.2218
-3.1529 SEMI-COLON -0.2218
-3.1529 SEVEN -0.2218
-3.1529 SHELL -0.2218
-3.1529 SHOW-ACTIVE -0.2218
-3.1529 SHUTDOWN-VOX -0.2218
-3.1529 SINGLE-QUOTE -0.2218
-3.1529 SINGLE-QUOTES -0.2218
-3.1529 SIX -0.2218
-3.1529 SLASH -0.2218
-3.1529 SPACE -0.2218
-3.1529 SPLIT -0.2218
-3.1529 STAR -0.2218
-3.1529 START-MACRO -0.2218
-3.1529 START-OF-LINE -0.2218
-3.1529 STOP -0.2218
-3.1529 STOP-MACRO -0.2218
-3.1529 SUDO -0.2218
-3.1529 SUSPEND -0.2218
-3.1529 SWITCH -0.2218
-3.1529 T-MUX -0.2218
-3.1529 TAB -0.2218
-3.1529 TACK -0.2218
-3.1529 TAG -0.2218
-3.1529 TAIL -0.2218
-3.1529 TANGO -0.2218
-3.1529 TAR -0.2218
-3.1529 THREE -0.2218
-3.1529 TIL-DA -0.2218
-3.1529 TIME-STAMP -0.2218
-3.1529 TOGGLE-CASE -0.2218
-2.8519 TOP -0.2218
-3.1529 TOUCH -0.2218
-3.1529 TREE -0.2218
-3.1529 TWO -0.2218
-3.1529 U-NAME -0.2218
-2.8519 UNDO -0.2218
-3.1529 UNDO-LINE -0.2218
-3.1529 UNIFORM -0.2218
-3.1529 UNIQUE-ID -0.2218
-3.1529 UNIX-STAMP -0.2218
-2.8519 UP -0.2218
-3.1529 USER -0.2218
-3.1529 VICTOR -0.2218
-3.1529 VIM -0.2218
-3.1529 VIM-R-C -0.2218
-3.1529 W-W-W -0.2218
-3.1529 WHISKEY -0.2218
-3.1529 WHO -0.2218
-3.1529 WHO-AM-I -0.2218
-3.1529 WORD -0.2218
-3.1529 X-ER -0.2218
-3.1529 YANKEE -0.2218
-3.1529 YEAR -0.2218
-3.1529 ZEN -0.2218
-3.1529 ZERO -0.2218

\2-grams:
-2.6758 <s> A 0.0000
-2.6758 <s> ACTIVATE 0.0000
-2.6758 <s> AGAIN 0.0000
-2.6758 <s> ALIAS 0.0000
-2.6758 <s> ALPHA 0.0000
-2.6758 <s> AND-PER-SAND 0.0000
-2.6758 <s> APPEND 0.0000
-2.6758 <s> APT-GET 0.0000
-2.6758 <s> AUTO 0.0000
-2.6758 <s> AWK 0.0000
-2.6758 <s> BACK-SLASH 0.0000
-2.6758 <s> BACKGROUND 0.0000
-2.6758 <s> BACKSPACE 0.0000
-2.6758 <s> BACKTICK 0.0000
-2.6758 <s> BACKTICKS 0.0000
-2.6758 <s> BANG 0.0000
-2.6758 <s> BASE 0.0000
-2.6758 <s> BASH-R-C 0.0000
-2.6758 <s> BEGINNING 0.0000
-2.6758 <s> BEGINNING-OF-LINE 0.0000
-2.6758 <s> BOTTOM 0.0000
-2.6758 <s> BRACES 0.0000
-2.6758 <s> BRACKETS 0.0000
-2.6758 <s> BRAVO 0.0000
-2.6758 <s> BUNDLE-INSTALL 0.0000
-2.6758 <s> C-D 0.0000
-2.6758 <s> C-H-MOD 0.0000
-2.6758 <s> C-H-OWN 0.0000
-2.6758 <s> CAPS-LOCK 0.0000
-2.6758 <s> CARET 0.0000
-2.6758 <s> CASH 0.0000
-2.6758 <s> CAT 0.0000
-2.6758 <s> CHANGE 0.0000
-2.6758 <s> CHARLIE 0.0000
-2.6758 <s> CLEAN 0.0000
-2.6758 <s> CLEAR 0.0000
-2.6758 <s> CLOSE 0.0000
-2.6758 <s> COLON 0.0000
-2.6758 <s> COM 0.0000
-2.6758 <s> COMMA 0.0000
-2.6758 <s> COPY 0.0000
-2.6758 <s> CURL 0.0000
-2.6758 <s> CUT 0.0000
-2.6758 <s> CYCLE 0.0000
-2.6758 <s> CYCLE-WINDOW 0.0000
-2.6758 <s> D-F 0.0000
-2.6758 <s> DATE 0.0000
-2.6758 <s> DATE-STAMP 0.0000
-2.6758 <s> DAY 0.0000
-2.6758 <s> DE-ACTIVATE 0.0000
-2.6758 <s> DE-SELECT 0.0000
-2.3747 <s> DELETE 0.0000
-2.6758 <s> DELETE-LINE 0.0000
-2.6758 <s> DELTA 0.0000
-2.6758 <s> DIVIDE 0.0000
-2.6758 <s> DOT 0.0000
-2.6758 <s> DOUBLE-QUOTE 0.0000
-2.6758 <s> DOUBLE-QUOTES 0.0000
-2.3747 <s> DOWN 0.0000
-2.6758 <s> ECHO 0.0000
-2.6758 <s> EDIT 0.0000
-2.6758 <s> EDITOR 0.0000
-2.6758 <s> EIGHT 0.0000
-2.6758 <s> END 0.0000
-2.3747 <s> END-OF-LINE 0.0000
-2.6758 <s> ESCAPE 0.0000
-2.6758 <s> ET 0.0000
-2.6758 <s> EXECUTE 0.0000
-2.6758 <s> EXIT 0.0000
-2.6758 <s> EXPONENT 0.0000
-2.6758 <s> EXPORT 0.0000
-2.6758 <s> FIB-A-NOCH-EE 0.0000
-2.3747 <s> FIND 0.0000
-2.6758 <s> FIVE 0.0000
-2.6758 <s> FORE-GROUND 0.0000
-2.6758 <s> FOUR 0.0000
-2.6758 <s> FOXTROT 0.0000
-2.6758 <s> G-MAIL 0.0000
-2.6758 <s> GIT-ADD 0.0000
-2.6758 <s> GIT-ADD-ORGIN 0.0000
-2.6758 <s> GIT-CLONE 0.0000
-2.6758 <s> GIT-CONFIG 0.0000
-2.6758 <s> GIT-IN-IT 0.0000
-2.6758 <s> GIT-PUSH 0.0000
-2.6758 <s> GIT-REMOVE 0.0000
-2.6758 <s> GOLF 0.0000
-2.6758 <s> GOOGLE 0.0000
-2.6758 <s> GREP 0.0000
-2.6758 <s> H-T-T-P 0.0000
-2.6758 <s> H-T-T-P-S 0.0000
-2.6758 <s> H-TOP 0.0000
-2.6758 <s> HASH 0.0000
-2.6758 <s> HOME 0.0000
-2.6758 <s> HOST 0.0000
-2.6758 <s> HOTEL 0.0000
-2.6758 <s> HOUR 0.0000
-2.6758 <s> INDIA 0.0000
-2.6758 <s> INNER 0.0000
-2.6758 <s> INSERT 0.0000
-2.6758 <s> INSTALL 0.0000
-2.6758 <s> JULIE 0.0000
-2.6758 <s> KILL 0.0000
-2.6758 <s> KILO 0.0000
-2.6758 <s> L-S 0.0000
-2.3747 <s> LEFT 0.0000
-2.6758 <s> LEFT-ARROWKEY 0.0000
-2.6758 <s> LEFT-BRACE 0.0000
-2.6758 <s> LEFT-BRACKET 0.0000
-2.6758 <s> LEFT-PA-REN 0.0000
-2.6758 <s> LESS 0.0000
-2.6758 <s> LIMA 0.0000
-2.6758 <s> LINE 0.0000
-2.6758 <s> M-K-DIR 0.0000
-2.6758 <s> M-V 0.0000
-2.6758 <s> MAN 0.0000
-2.6758 <s> MIKE 0.0000
-2.6758 <s> MINUS 0.0000
-2.6758 <s> MINUTE 0.0000
-2.6758 <s> MO-NAD 0.0000
-2.6758 <s> MOD-U-LUS 0.0000
-2.6758 <s> MONTH 0.0000
-2.6758 <s> MULTIPLY 0.0000
-2.6758 <s> NET 0.0000
-2.6758 <s> NEW-WINDOW 0.0000
-2.6758 <s> NEXT 0.0000
-2.6758 <s> NICE-STAMP 0.0000
-2.6758 <s> NINE 0.0000
-2.6758 <s> NO-HUP 0.0000
-2.6758 <s> NOVEMBER 0.0000
-2.6758 <s> OKAY 0.0000
-2.6758 <s> ONE 0.0000
-2.6758 <s> ORG 0.0000
-2.6758 <s> OSCAR 0.0000
-2.6758 <s> P-I-D-OF 0.0000
-2.6758 <s> P-S 0.0000
-2.6758 <s> P-W-D 0.0000
-2.6758 <s> PA-RENS 0.0000
-2.6758 <s> PAGE-DOWN 0.0000
-2.6758 <s> PAGE-UP 0.0000
-2.6758 <s> PAPA 0.0000
-2.6758 <s> PASSWORD 0.0000
-2.6758 <s> PASTE 0.0000
-2.6758 <s> PERCENT 0.0000
-2.6758 <s> PIE 0.0000
-2.6758 <s> PING 0.0000
-2.6758 <s> PIPE 0.0000
-2.6758 <s> PLUS 0.0000
-2.6758 <s> PREVIOUS 0.0000
-2.6758 <s> QUEBEC 0.0000
-2.6758 <s> QUIT 0.0000
-2.6758 <s> R-M 0.0000
-2.6758 <s> RE-DIRECT 0.0000
-2.6758 <s> RE-DIRECT-OUTPUT 0.0000
-2.6758 <s> REDO 0.0000
-2.6758 <s> REMAINDER 0.0000
-2.6758 <s> REPLACE 0.0000
-2.6758 <s> REVERSE-SEARCH 0.0000
-2.3747 <s> RIGHT 0.0000
-2.6758 <s> RIGHT-ARROWKEY 0.0000
-2.6758 <s> RIGHT-BRACE 0.0000
-2.6758 <s> RIGHT-BRACKET 0.0000
-2.6758 <s> RIGHT-PA-REN 0.0000
-2.6758 <s> ROMEO 0.0000
-2.6758 <s> ROOT 0.0000
-2.6758 <s> ROOT-PASSWORD 0.0000
-2.6758 <s> RUN-MACRO 0.0000
-2.6758 <s> S-S-H 0.0000
-2.6758 <s> SAVE 0.0000
-2.6758 <s> SCOTT-CAG-NO 0.0000
-2.6758 <s> SEARCH 0.0000
-2.6758 <s> SED 0.0000
-2.6758 <s> SEE-ARRA 0.0000
-2.6758 <s> SELECT 0.0000
-2.6758 <s> SEMI-COLON 0.0000
-2.6758 <s> SEVEN 0.0000
-2.6758 <s> SHELL 0.0000
-2.6758 <s> SHOW-ACTIVE 0.0000
-2.6758 <s> SHUTDOWN-VOX 0.0000
-2.6758 <s> SINGLE-QUOTE 0.0000
-2.6758 <s> SINGLE-QUOTES 0.0000
-2.6758 <s> SIX 0.0000
-2.6758 <s> SLASH 0.0000
-2.6758 <s> SPACE 0.0000
-2.6758 <s> SPLIT 0.0000
-2.6758 <s> STAR 0.0000
-2.6758 <s> START-MACRO 0.0000
-2.6758 <s> START-OF-LINE 0.0000
-2.6758 <s> STOP 0.0000
-2.6758 <s> STOP-MACRO 0.0000
-2.6758 <s> SUDO 0.0000
-2.6758 <s> SUSPEND 0.0000
-2.6758 <s> SWITCH 0.0000
-2.6758 <s> T-MUX 0.0000
-2.6758 <s> TAB 0.0000
-2.6758 <s> TACK 0.0000
-2.6758 <s> TAG 0.0000
-2.6758 <s> TAIL 0.0000
-2.6758 <s> TANGO 0.0000
-2.6758 <s> TAR 0.0000
-2.6758 <s> THREE 0.0000
-2.6758 <s> TIL-DA 0.0000
-2.6758 <s> TIME-STAMP 0.0000
-2.6758 <s> TOGGLE-CASE 0.0000
-2.3747 <s> TOP 0.0000
-2.6758 <s> TOUCH 0.0000
-2.6758 <s> TREE 0.0000
-2.6758 <s> TWO 0.0000
-2.6758 <s> U-NAME 0.0000
-2.3747 <s> UNDO 0.0000
-2.6758 <s> UNDO-LINE 0.0000
-2.6758 <s> UNIFORM 0.0000
-2.6758 <s> UNIQUE-ID 0.0000
-2.6758 <s> UNIX-STAMP 0.0000
-2.3747 <s> UP 0.0000
-2.6758 <s> USER 0.0000
-2.6758 <s> VICTOR 0.0000
-2.6758 <s> VIM 0.0000
-2.6758 <s> VIM-R-C 0.0000
-2.6758 <s> W-W-W 0.0000
-2.6758 <s> WHISKEY 0.0000
-2.6758 <s> WHO 0.0000
-2.6758 <s> WHO-AM-I 0.0000
-2.6758 <s> WORD 0.0000
-2.6758 <s> X-ER 0.0000
-2.6758 <s> YANKEE 0.0000
-2.6758 <s> YEAR 0.0000
-2.6758 <s> ZEN 0.0000
-2.6758 <s> ZERO 0.0000
-0.3010 A </s> -0.3010
-0.3010 ACTIVATE </s> -0.3010
-0.3010 AGAIN </s> -0.3010
-0.3010 ALIAS </s> -0.3010
-0.3010 ALPHA </s> -0.3010
-0.3010 AND-PER-SAND </s> -0.3010
-0.3010 APPEND </s> -0.3010
-0.3010 APT-GET </s> -0.3010
-0.3010 AUTO </s> -0.3010
-0.3010 AWK </s> -0.3010
-0.3010 BACK-SLASH </s> -0.3010
-0.3010 BACKGROUND </s> -0.3010
-0.3010 BACKSPACE </s> -0.3010
-0.3010 BACKTICK </s> -0.3010
-0.3010 BACKTICKS </s> -0.3010
-0.3010 BANG </s> -0.3010
-0.3010 BASE </s> -0.3010
-0.3010 BASH-R-C </s> -0.3010
-0.3010 BEGINNING </s> -0.3010
-0.3010 BEGINNING-OF-LINE </s> -0.3010
-0.3010 BOTTOM </s> -0.3010
-0.3010 BRACES </s> -0.3010
-0.3010 BRACKETS </s> -0.3010
-0.3010 BRAVO </s> -0.3010
-0.3010 BUNDLE-INSTALL </s> -0.3010
-0.3010 C-D </s> -0.3010
-0.3010 C-H-MOD </s> -0.3010
-0.3010 C-H-OWN </s> -0.3010
-0.3010 CAPS-LOCK </s> -0.3010
-0.3010 CARET </s> -0.3010
-0.3010 CASH </s> -0.3010
-0.3010 CAT </s> -0.3010
-0.3010 CHANGE </s> -0.3010
-0.3010 CHARLIE </s> -0.3010
-0.3010 CLEAN </s> -0.3010
-0.3010 CLEAR </s> -0.3010
-0.3010 CLOSE </s> -0.3010
-0.3010 COLON </s> -0.3010
-0.3010 COM </s> -0.3010
-0.3010 COMMA </s> -0.3010
-0.3010 COPY </s> -0.3010
-0.3010 CURL </s> -0.3010
-0.3010 CUT </s> -0.3010
-0.3010 CYCLE </s> -0.3010
-0.3010 CYCLE-WINDOW </s> -0.3010
-0.3010 D-F </s> -0.3010
-0.3010 DATE </s> -0.3010
-0.3010 DATE-STAMP </s> -0.3010
-0.3010 DAY </s> -0.3010
-0.3010 DE-ACTIVATE </s> -0.3010
-0.3010 DE-SELECT </s> -0.3010
-0.3010 DELETE </s> -0.3010
-0.3010 DELETE-LINE </s> -0.3010
-0.3010 DELTA </s> -0.3010
-0.3010 DIVIDE </s> -0.3010
-0.3010 DOT </s> -0.3010
-0.3010 DOUBLE-QUOTE </s> -0.3010
-0.3010 DOUBLE-QUOTES </s> -0.3010
-0.3010 DOWN </s> -0.3010
-0.3010 ECHO </s> -0.3010
-0.3010 EDIT </s> -0.3010
-0.3010 EDITOR </s> -0.3010
-0.3010 EIGHT </s> -0.3010
-0.3010 END </s> -0.3010
-0.3010 END-OF-LINE </s> -0.3010
-0.3010 ESCAPE </s> -0.3010
-0.3010 ET </s> -0.3010
-0.3010 EXECUTE </s> -0.3010
-0.3010 EXIT </s> -0.3010
-0.3010 EXPONENT </s> -0.3010
-0.3010 EXPORT </s> -0.3010
-0.3010 FIB-A-NOCH-EE </s> -0.3010
-0.3010 FIND </s> -0.3010
-0.3010 FIVE </s> -0.3010
-0.3010 FORE-GROUND </s> -0.3010
-0.3010 FOUR </s> -0.3010
-0.3010 FOXTROT </s> -0.3010
-0.3010 G-MAIL </s> -0.3010
-0.3010 GIT-ADD </s> -0.3010
-0.3010 GIT-ADD-ORGIN </s> -0.3010
-0.3010 GIT-CLONE </s> -0.3010
-0.3010 GIT-CONFIG </s> -0.3010
-0.3010 GIT-IN-IT </s> -0.3010
-0.3010 GIT-PUSH </s> -0.3010
-0.3010 GIT-REMOVE </s> -0.3010
-0.3010 GOLF </s> -0.3010
-0.3010 GOOGLE </s> -0.3010
-0.3010 GREP </s> -0.3010
-0.3010 H-T-T-P </s> -0.3010
-0.3010 H-T-T-P-S </s> -0.3010
-0.3010 H-TOP </s> -0.3010
-0.3010 HASH </s> -0.3010
-0.3010 HOME </s> -0.3010
-0.3010 HOST </s> -0.3010
-0.3010 HOTEL </s> -0.3010
-0.3010 HOUR </s> -0.3010
-0.3010 INDIA </s> -0.3010
-0.3010 INNER </s> -0.3010
-0.3010 INSERT </s> -0.3010
-0.3010 INSTALL </s> -0.3010
-0.3010 JULIE </s> -0.3010
-0.3010 KILL </s> -0.3010
-0.3010 KILO </s> -0.3010
-0.3010 L-S </s> -0.3010
-0.3010 LEFT </s> -0.3010
-0.3010 LEFT-ARROWKEY </s> -0.3010
-0.3010 LEFT-BRACE </s> -0.3010
-0.3010 LEFT-BRACKET </s> -0.3010
-0.3010 LEFT-PA-REN </s> -0.3010
-0.3010 LESS </s> -0.3010
-0.3010 LIMA </s> -0.3010
-0.3010 LINE </s> -0.3010
-0.3010 M-K-DIR </s> -0.3010
-0.3010 M-V </s> -0.3010
-0.3010 MAN </s> -0.3010
-0.3010 MIKE </s> -0.3010
-0.3010 MINUS </s> -0.3010
-0.3010 MINUTE </s> -0.3010
-0.3010 MO-NAD </s> -0.3010
-0.3010 MOD-U-LUS </s> -0.3010
-0.3010 MONTH </s> -0.3010
-0.3010 MULTIPLY </s> -0.3010
-0.3010 NET </s> -0.3010
-0.3010 NEW-WINDOW </s> -0.3010
-0.3010 NEXT </s> -0.3010
-0.3010 NICE-STAMP </s> -0.3010
-0.3010 NINE </s> -0.3010
-0.3010 NO-HUP </s> -0.3010
-0.3010 NOVEMBER </s> -0.3010
-0.3010 OKAY </s> -0.3010
-0.3010 ONE </s> -0.3010
-0.3010 ORG </s> -0.3010
-0.3010 OSCAR </s> -0.3010
-0.3010 P-I-D-OF </s> -0.3010
-0.3010 P-S </s> -0.3010
-0.3010 P-W-D </s> -0.3010
-0.3010 PA-RENS </s> -0.3010
-0.3010 PAGE-DOWN </s> -0.3010
-0.3010 PAGE-UP </s> -0.3010
-0.3010 PAPA </s> -0.3010
-0.3010 PASSWORD </s> -0.3010
-0.3010 PASTE </s> -0.3010
-0.3010 PERCENT </s> -0.3010
-0.3010 PIE </s> -0.3010
-0.3010 PING </s> -0.3010
-0.3010 PIPE </s> -0.3010
-0.3010 PLUS </s> -0.3010
-0.3010 PREVIOUS </s> -0.3010
-0.3010 QUEBEC </s> -0.3010
-0.3010 QUIT </s> -0.3010
-0.3010 R-M </s> -0.3010
-0.3010 RE-DIRECT </s> -0.3010
-0.3010 RE-DIRECT-OUTPUT </s> -0.3010
-0.3010 REDO </s> -0.3010
-0.3010 REMAINDER </s> -0.3010
-0.3010 REPLACE </s> -0.3010
-0.3010 REVERSE-SEARCH </s> -0.3010
-0.3010 RIGHT </s> -0.3010
-0.3010 RIGHT-ARROWKEY </s> -0.3010
-0.3010 RIGHT-BRACE </s> -0.3010
-0.3010 RIGHT-BRACKET </s> -0.3010
-0.3010 RIGHT-PA-REN </s> -0.3010
-0.3010 ROMEO </s> -0.3010
-0.3010 ROOT </s> -0.3010
-0.3010 ROOT-PASSWORD </s> -0.3010
-0.3010 RUN-MACRO </s> -0.3010
-0.3010 S-S-H </s> -0.3010
-0.3010 SAVE </s> -0.3010
-0.3010 SCOTT-CAG-NO </s> -0.3010
-0.3010 SEARCH </s> -0.3010
-0.3010 SED </s> -0.3010
-0.3010 SEE-ARRA </s> -0.3010
-0.3010 SELECT </s> -0.3010
-0.3010 SEMI-COLON </s> -0.3010
-0.3010 SEVEN </s> -0.3010
-0.3010 SHELL </s> -0.3010
-0.3010 SHOW-ACTIVE </s> -0.3010
-0.3010 SHUTDOWN-VOX </s> -0.3010
-0.3010 SINGLE-QUOTE </s> -0.3010
-0.3010 SINGLE-QUOTES </s> -0.3010
-0.3010 SIX </s> -0.3010
-0.3010 SLASH </s> -0.3010
-0.3010 SPACE </s> -0.3010
-0.3010 SPLIT </s> -0.3010
-0.3010 STAR </s> -0.3010
-0.3010 START-MACRO </s> -0.3010
-0.3010 START-OF-LINE </s> -0.3010
-0.3010 STOP </s> -0.3010
-0.3010 STOP-MACRO </s> -0.3010
-0.3010 SUDO </s> -0.3010
-0.3010 SUSPEND </s> -0.3010
-0.3010 SWITCH </s> -0.3010
-0.3010 T-MUX </s> -0.3010
-0.3010 TAB </s> -0.3010
-0.3010 TACK </s> -0.3010
-0.3010 TAG </s> -0.3010
-0.3010 TAIL </s> -0.3010
-0.3010 TANGO </s> -0.3010
-0.3010 TAR </s> -0.3010
-0.3010 THREE </s> -0.3010
-0.3010 TIL-DA </s> -0.3010
-0.3010 TIME-STAMP </s> -0.3010
-0.3010 TOGGLE-CASE </s> -0.3010
-0.3010 TOP </s> -0.3010
-0.3010 TOUCH </s> -0.3010
-0.3010 TREE </s> -0.3010
-0.3010 TWO </s> -0.3010
-0.3010 U-NAME </s> -0.3010
-0.3010 UNDO </s> -0.3010
-0.3010 UNDO-LINE </s> -0.3010
-0.3010 UNIFORM </s> -0.3010
-0.3010 UNIQUE-ID </s> -0.3010
-0.3010 UNIX-STAMP </s> -0.3010
-0.3010 UP </s> -0.3010
-0.3010 USER </s> -0.3010
-0.3010 VICTOR </s> -0.3010
-0.3010 VIM </s> -0.3010
-0.3010 VIM-R-C </s> -0.3010
-0.3010 W-W-W </s> -0.3010
-0.3010 WHISKEY </s> -0.3010
-0.3010 WHO </s> -0.3010
-0.3010 WHO-AM-I </s> -0.3010
-0.3010 WORD </s> -0.3010
-0.3010 X-ER </s> -0.3010
-0.3010 YANKEE </s> -0.3010
-0.3010 YEAR </s> -0.3010
-0.3010 ZEN </s> -0.3010
-0.3010 ZERO </s> -0.3010

\3-grams:
-0.3010 <s> A </s>
-0.3010 <s> ACTIVATE </s>
-0.3010 <s> AGAIN </s>
-0.3010 <s> ALIAS </s>
-0.3010 <s> ALPHA </s>
-0.3010 <s> AND-PER-SAND </s>
-0.3010 <s> APPEND </s>
-0.3010 <s> APT-GET </s>
-0.3010 <s> AUTO </s>
-0.3010 <s> AWK </s>
-0.3010 <s> BACK-SLASH </s>
-0.3010 <s> BACKGROUND </s>
-0.3010 <s> BACKSPACE </s>
-0.3010 <s> BACKTICK </s>
-0.3010 <s> BACKTICKS </s>
-0.3010 <s> BANG </s>
-0.3010 <s> BASE </s>
-0.3010 <s> BASH-R-C </s>
-0.3010 <s> BEGINNING </s>
-0.3010 <s> BEGINNING-OF-LINE </s>
-0.3010 <s> BOTTOM </s>
-0.3010 <s> BRACES </s>
-0.3010 <s> BRACKETS </s>
-0.3010 <s> BRAVO </s>
-0.3010 <s> BUNDLE-INSTALL </s>
-0.3010 <s> C-D </s>
-0.3010 <s> C-H-MOD </s>
-0.3010 <s> C-H-OWN </s>
-0.3010 <s> CAPS-LOCK </s>
-0.3010 <s> CARET </s>
-0.3010 <s> CASH </s>
-0.3010 <s> CAT </s>
-0.3010 <s> CHANGE </s>
-0.3010 <s> CHARLIE </s>
-0.3010 <s> CLEAN </s>
-0.3010 <s> CLEAR </s>
-0.3010 <s> CLOSE </s>
-0.3010 <s> COLON </s>
-0.3010 <s> COM </s>
-0.3010 <s> COMMA </s>
-0.3010 <s> COPY </s>
-0.3010 <s> CURL </s>
-0.3010 <s> CUT </s>
-0.3010 <s> CYCLE </s>
-0.3010 <s> CYCLE-WINDOW </s>
-0.3010 <s> D-F </s>
-0.3010 <s> DATE </s>
-0.3010 <s> DATE-STAMP </s>
-0.3010 <s> DAY </s>
-0.3010 <s> DE-ACTIVATE </s>
-0.3010 <s> DE-SELECT </s>
-0.3010 <s> DELETE </s>
-0.3010 <s> DELETE-LINE </s>
-0.3010 <s> DELTA </s>
-0.3010 <s> DIVIDE </s>
-0.3010 <s> DOT </s>
-0.3010 <s> DOUBLE-QUOTE </s>
-0.3010 <s> DOUBLE-QUOTES </s>
-0.3010 <s> DOWN </s>
-0.3010 <s> ECHO </s>
-0.3010 <s> EDIT </s>
-0.3010 <s> EDITOR </s>
-0.3010 <s> EIGHT </s>
-0.3010 <s> END </s>
-0.3010 <s> END-OF-LINE </s>
-0.3010 <s> ESCAPE </s>
-0.3010 <s> ET </s>
-0.3010 <s> EXECUTE </s>
-0.3010 <s> EXIT </s>
-0.3010 <s> EXPONENT </s>
-0.3010 <s> EXPORT </s>
-0.3010 <s> FIB-A-NOCH-EE </s>
-0.3010 <s> FIND </s>
-0.3010 <s> FIVE </s>
-0.3010 <s> FORE-GROUND </s>
-0.3010 <s> FOUR </s>
-0.3010 <s> FOXTROT </s>
-0.3010 <s> G-MAIL </s>
-0.3010 <s> GIT-ADD </s>
-0.3010 <s> GIT-ADD-ORGIN </s>
-0.3010 <s> GIT-CLONE </s>
-0.3010 <s> GIT-CONFIG </s>
-0.3010 <s> GIT-IN-IT </s>
-0.3010 <s> GIT-PUSH </s>
-0.3010 <s> GIT-REMOVE </s>
-0.3010 <s> GOLF </s>
-0.3010 <s> GOOGLE </s>
-0.3010 <s> GREP </s>
-0.3010 <s> H-T-T-P </s>
-0.3010 <s> H-T-T-P-S </s>
-0.3010 <s> H-TOP </s>
-0.3010 <s> HASH </s>
-0.3010 <s> HOME </s>
-0.3010 <s> HOST </s>
-0.3010 <s> HOTEL </s>
-0.3010 <s> HOUR </s>
-0.3010 <s> INDIA </s>
-0.3010 <s> INNER </s>
-0.3010 <s> INSERT </s>
-0.3010 <s> INSTALL </s>
-0.3010 <s> JULIE </s>
-0.3010 <s> KILL </s>
-0.3010 <s> KILO </s>
-0.3010 <s> L-S </s>
-0.3010 <s> LEFT </s>
-0.3010 <s> LEFT-ARROWKEY </s>
-0.3010 <s> LEFT-BRACE </s>
-0.3010 <s> LEFT-BRACKET </s>
-0.3010 <s> LEFT-PA-REN </s>
-0.3010 <s> LESS </s>
-0.3010 <s> LIMA </s>
-0.3010 <s> LINE </s>
-0.3010 <s> M-K-DIR </s>
-0.3010 <s> M-V </s>
-0.3010 <s> MAN </s>
-0.3010 <s> MIKE </s>
-0.3010 <s> MINUS </s>
-0.3010 <s> MINUTE </s>
-0.3010 <s> MO-NAD </s>
-0.3010 <s> MOD-U-LUS </s>
-0.3010 <s> MONTH </s>
-0.3010 <s> MULTIPLY </s>
-0.3010 <s> NET </s>
-0.3010 <s> NEW-WINDOW </s>
-0.3010 <s> NEXT </s>
-0.3010 <s> NICE-STAMP </s>
-0.3010 <s> NINE </s>
-0.3010 <s> NO-HUP </s>
-0.3010 <s> NOVEMBER </s>
-0.3010 <s> OKAY </s>
-0.3010 <s> ONE </s>
-0.3010 <s> ORG </s>
-0.3010 <s> OSCAR </s>
-0.3010 <s> P-I-D-OF </s>
-0.3010 <s> P-S </s>
-0.3010 <s> P-W-D </s>
-0.3010 <s> PA-RENS </s>
-0.3010 <s> PAGE-DOWN </s>
-0.3010 <s> PAGE-UP </s>
-0.3010 <s> PAPA </s>
-0.3010 <s> PASSWORD </s>
-0.3010 <s> PASTE </s>
-0.3010 <s> PERCENT </s>
-0.3010 <s> PIE </s>
-0.3010 <s> PING </s>
-0.3010 <s> PIPE </s>
-0.3010 <s> PLUS </s>
-0.3010 <s> PREVIOUS </s>
-0.3010 <s> QUEBEC </s>
-0.3010 <s> QUIT </s>
-0.3010 <s> R-M </s>
-0.3010 <s> RE-DIRECT </s>
-0.3010 <s> RE-DIRECT-OUTPUT </s>
-0.3010 <s> REDO </s>
-0.3010 <s> REMAINDER </s>
-0.3010 <s> REPLACE </s>
-0.3010 <s> REVERSE-SEARCH </s>
-0.3010 <s> RIGHT </s>
-0.3010 <s> RIGHT-ARROWKEY </s>
-0.3010 <s> RIGHT-BRACE </s>
-0.3010 <s> RIGHT-BRACKET </s>
-0.3010 <s> RIGHT-PA-REN </s>
-0.3010 <s> ROMEO </s>
-0.3010 <s> ROOT </s>
-0.3010 <s> ROOT-PASSWORD </s>
-0.3010 <s> RUN-MACRO </s>
-0.3010 <s> S-S-H </s>
-0.3010 <s> SAVE </s>
-0.3010 <s> SCOTT-CAG-NO </s>
-0.3010 <s> SEARCH </s>
-0.3010 <s> SED </s>
-0.3010 <s> SEE-ARRA </s>
-0.3010 <s> SELECT </s>
-0.3010 <s> SEMI-COLON </s>
-0.3010 <s> SEVEN </s>
-0.3010 <s> SHELL </s>
-0.3010 <s> SHOW-ACTIVE </s>
-0.3010 <s> SHUTDOWN-VOX </s>
-0.3010 <s> SINGLE-QUOTE </s>
-0.3010 <s> SINGLE-QUOTES </s>
-0.3010 <s> SIX </s>
-0.3010 <s> SLASH </s>
-0.3010 <s> SPACE </s>
-0.3010 <s> SPLIT </s>
-0.3010 <s> STAR </s>
-0.3010 <s> START-MACRO </s>
-0.3010 <s> START-OF-LINE </s>
-0.3010 <s> STOP </s>
-0.3010 <s> STOP-MACRO </s>
-0.3010 <s> SUDO </s>
-0.3010 <s> SUSPEND </s>
-0.3010 <s> SWITCH </s>
-0.3010 <s> T-MUX </s>
-0.3010 <s> TAB </s>
-0.3010 <s> TACK </s>
-0.3010 <s> TAG </s>
-0.3010 <s> TAIL </s>
-0.3010 <s> TANGO </s>
-0.3010 <s> TAR </s>
-0.3010 <s> THREE </s>
-0.3010 <s> TIL-DA </s>
-0.3010 <s> TIME-STAMP </s>
-0.3010 <s> TOGGLE-CASE </s>
-0.3010 <s> TOP </s>
-0.3010 <s> TOUCH </s>
-0.3010 <s> TREE </s>
-0.3010 <s> TWO </s>
-0.3010 <s> U-NAME </s>
-0.3010 <s> UNDO </s>
-0.3010 <s> UNDO-LINE </s>
-0.3010 <s> UNIFORM </s>
-0.3010 <s> UNIQUE-ID </s>
-0.3010 <s> UNIX-STAMP </s>
-0.3010 <s> UP </s>
-0.3010 <s> USER </s>
-0.3010 <s> VICTOR </s>
-0.3010 <s> VIM </s>
-0.3010 <s> VIM-R-C </s>
-0.3010 <s> W-W-W </s>
-0.3010 <s> WHISKEY </s>
-0.3010 <s> WHO </s>
-0.3010 <s> WHO-AM-I </s>
-0.3010 <s> WORD </s>
-0.3010 <s> X-ER </s>
-0.3010 <s> YANKEE </s>
-0.3010 <s> YEAR </s>
-0.3010 <s> ZEN </s>
-0.3010 <s> ZERO </s>

\end\
